digraph Tree {
node [shape=box, style="filled, rounded", color="black", fontname=helvetica] ;
edge [fontname=helvetica] ;
0 [label="sepal length (cm) <= 5.45\ngini = 0.66\nsamples = 94\nvalue = [58, 49, 43]\nclass = setosa", fillcolor="#fdf4ed"] ;
1 [label="petal length (cm) <= 2.45\ngini = 0.16\nsamples = 31\nvalue = [54, 5, 0]\nclass = setosa", fillcolor="#e78d4b"] ;
0 -> 1 [labeldistance=2.5, labelangle=45, headlabel="True"] ;
2 [label="gini = 0.0\nsamples = 28\nvalue = [54, 0, 0]\nclass = setosa", fillcolor="#e58139"] ;
1 -> 2 ;
3 [label="gini = 0.0\nsamples = 3\nvalue = [0, 5, 0]\nclass = versicolor", fillcolor="#39e581"] ;
1 -> 3 ;
4 [label="petal width (cm) <= 1.7\ngini = 0.54\nsamples = 63\nvalue = [4, 44, 43]\nclass = versicolor", fillcolor="#fbfefc"] ;
0 -> 4 [labeldistance=2.5, labelangle=-45, headlabel="False"] ;
5 [label="petal width (cm) <= 0.7\ngini = 0.25\nsamples = 33\nvalue = [4, 43, 3]\nclass = versicolor", fillcolor="#57e994"] ;
4 -> 5 ;
6 [label="gini = 0.0\nsamples = 2\nvalue = [4, 0, 0]\nclass = setosa", fillcolor="#e58139"] ;
5 -> 6 ;
7 [label="petal length (cm) <= 5.35\ngini = 0.12\nsamples = 31\nvalue = [0, 43, 3]\nclass = versicolor", fillcolor="#47e78a"] ;
5 -> 7 ;
8 [label="sepal length (cm) <= 6.25\ngini = 0.04\nsamples = 30\nvalue = [0, 43, 1]\nclass = versicolor", fillcolor="#3ee684"] ;
7 -> 8 ;
9 [label="gini = 0.0\nsamples = 20\nvalue = [0, 28, 0]\nclass = versicolor", fillcolor="#39e581"] ;
8 -> 9 ;
10 [label="sepal length (cm) <= 6.35\ngini = 0.12\nsamples = 10\nvalue = [0, 15, 1]\nclass = versicolor", fillcolor="#46e789"] ;
8 -> 10 ;
11 [label="petal width (cm) <= 1.4\ngini = 0.22\nsamples = 4\nvalue = [0, 7, 1]\nclass = versicolor", fillcolor="#55e993"] ;
10 -> 11 ;
12 [label="gini = 0.0\nsamples = 1\nvalue = [0, 1, 0]\nclass = versicolor", fillcolor="#39e581"] ;
11 -> 12 ;
13 [label="petal length (cm) <= 5.0\ngini = 0.24\nsamples = 3\nvalue = [0, 6, 1]\nclass = versicolor", fillcolor="#5ae996"] ;
11 -> 13 ;
14 [label="gini = 0.0\nsamples = 2\nvalue = [0, 6, 0]\nclass = versicolor", fillcolor="#39e581"] ;
13 -> 14 ;
15 [label="gini = 0.0\nsamples = 1\nvalue = [0, 0, 1]\nclass = virginica", fillcolor="#8139e5"] ;
13 -> 15 ;
16 [label="gini = 0.0\nsamples = 6\nvalue = [0, 8, 0]\nclass = versicolor", fillcolor="#39e581"] ;
10 -> 16 ;
17 [label="gini = 0.0\nsamples = 1\nvalue = [0, 0, 2]\nclass = virginica", fillcolor="#8139e5"] ;
7 -> 17 ;
18 [label="petal length (cm) <= 4.85\ngini = 0.05\nsamples = 30\nvalue = [0, 1, 40]\nclass = virginica", fillcolor="#843ee6"] ;
4 -> 18 ;
19 [label="sepal length (cm) <= 5.95\ngini = 0.5\nsamples = 2\nvalue = [0, 1, 1]\nclass = versicolor", fillcolor="#ffffff"] ;
18 -> 19 ;
20 [label="gini = 0.0\nsamples = 1\nvalue = [0, 1, 0]\nclass = versicolor", fillcolor="#39e581"] ;
19 -> 20 ;
21 [label="gini = 0.0\nsamples = 1\nvalue = [0, 0, 1]\nclass = virginica", fillcolor="#8139e5"] ;
19 -> 21 ;
22 [label="gini = 0.0\nsamples = 28\nvalue = [0, 0, 39]\nclass = virginica", fillcolor="#8139e5"] ;
18 -> 22 ;
}